digraph Tree {
node [shape=box] ;
0 [label="X[3] <= 2.5\nentropy = 0.959\nsamples = 1658\nvalue = [1026, 632]"] ;
1 [label="entropy = 0.152\nsamples = 137\nvalue = [3, 134]"] ;
0 -> 1 [labeldistance=2.5, labelangle=45, headlabel="True"] ;
2 [label="X[0] <= 2.5\nentropy = 0.912\nsamples = 1521\nvalue = [1023, 498]"] ;
0 -> 2 [labeldistance=2.5, labelangle=-45, headlabel="False"] ;
3 [label="X[10] <= 0.5\nentropy = 0.998\nsamples = 467\nvalue = [220, 247]"] ;
2 -> 3 ;
7 [label="entropy = 0.905\nsamples = 181\nvalue = [123, 58]"] ;
3 -> 7 ;
8 [label="X[9] <= 0.5\nentropy = 0.924\nsamples = 286\nvalue = [97, 189]"] ;
3 -> 8 ;
9 [label="entropy = 0.999\nsamples = 146\nvalue = [71, 75]"] ;
8 -> 9 ;
10 [label="entropy = 0.692\nsamples = 140\nvalue = [26, 114]"] ;
8 -> 10 ;
4 [label="X[5] <= 0.5\nentropy = 0.792\nsamples = 1054\nvalue = [803, 251]"] ;
2 -> 4 ;
5 [label="X[11] <= 0.5\nentropy = 0.693\nsamples = 870\nvalue = [708, 162]"] ;
4 -> 5 ;
11 [label="X[8] <= 0.5\nentropy = 0.811\nsamples = 332\nvalue = [249, 83]"] ;
5 -> 11 ;
17 [label="entropy = 0.88\nsamples = 234\nvalue = [164, 70]"] ;
11 -> 17 ;
18 [label="entropy = 0.565\nsamples = 98\nvalue = [85, 13]"] ;
11 -> 18 ;
12 [label="X[7] <= 0.5\nentropy = 0.602\nsamples = 538\nvalue = [459, 79]"] ;
5 -> 12 ;
13 [label="entropy = 0.242\nsamples = 225\nvalue = [216, 9]"] ;
12 -> 13 ;
14 [label="X[1] <= 28.5\nentropy = 0.767\nsamples = 313\nvalue = [243, 70]"] ;
12 -> 14 ;
15 [label="entropy = 0.946\nsamples = 88\nvalue = [56, 32]"] ;
14 -> 15 ;
16 [label="entropy = 0.655\nsamples = 225\nvalue = [187, 38]"] ;
14 -> 16 ;
6 [label="entropy = 0.999\nsamples = 184\nvalue = [95, 89]"] ;
4 -> 6 ;
}