digraph Tree {
node [shape=box] ;
0 [label="X[4] <= 2.5\ngini = 0.472\nsamples = 1658\nvalue = [1026, 632]"] ;
1 [label="gini = 0.043\nsamples = 137\nvalue = [3, 134]"] ;
0 -> 1 [labeldistance=2.5, labelangle=45, headlabel="True"] ;
2 [label="X[1] <= 2.5\ngini = 0.44\nsamples = 1521\nvalue = [1023, 498]"] ;
0 -> 2 [labeldistance=2.5, labelangle=-45, headlabel="False"] ;
3 [label="X[8] <= 0.5\ngini = 0.498\nsamples = 467\nvalue = [220, 247]"] ;
2 -> 3 ;
5 [label="X[2] <= 28.5\ngini = 0.436\nsamples = 181\nvalue = [123, 58]"] ;
3 -> 5 ;
21 [label="gini = 0.488\nsamples = 90\nvalue = [52, 38]"] ;
5 -> 21 ;
22 [label="gini = 0.343\nsamples = 91\nvalue = [71, 20]"] ;
5 -> 22 ;
6 [label="X[0] <= 1.5\ngini = 0.448\nsamples = 286\nvalue = [97, 189]"] ;
3 -> 6 ;
7 [label="X[7] <= 0.5\ngini = 0.348\nsamples = 183\nvalue = [41, 142]"] ;
6 -> 7 ;
9 [label="gini = 0.5\nsamples = 78\nvalue = [40, 38]"] ;
7 -> 9 ;
10 [label="gini = 0.019\nsamples = 105\nvalue = [1, 104]"] ;
7 -> 10 ;
8 [label="gini = 0.496\nsamples = 103\nvalue = [56, 47]"] ;
6 -> 8 ;
4 [label="X[0] <= 1.5\ngini = 0.363\nsamples = 1054\nvalue = [803, 251]"] ;
2 -> 4 ;
11 [label="X[9] <= 0.5\ngini = 0.315\nsamples = 807\nvalue = [649, 158]"] ;
4 -> 11 ;
13 [label="X[5] <= 0.5\ngini = 0.389\nsamples = 310\nvalue = [228, 82]"] ;
11 -> 13 ;
19 [label="gini = 0.463\nsamples = 132\nvalue = [84, 48]"] ;
13 -> 19 ;
20 [label="X[2] <= 31.5\ngini = 0.309\nsamples = 178\nvalue = [144, 34]"] ;
13 -> 20 ;
25 [label="gini = 0.346\nsamples = 99\nvalue = [77, 22]"] ;
20 -> 25 ;
26 [label="gini = 0.258\nsamples = 79\nvalue = [67, 12]"] ;
20 -> 26 ;
14 [label="X[5] <= 0.5\ngini = 0.259\nsamples = 497\nvalue = [421, 76]"] ;
11 -> 14 ;
15 [label="X[2] <= 32.5\ngini = 0.069\nsamples = 196\nvalue = [189, 7]"] ;
14 -> 15 ;
27 [label="gini = 0.11\nsamples = 120\nvalue = [113, 7]"] ;
15 -> 27 ;
28 [label="gini = 0.0\nsamples = 76\nvalue = [76, 0]"] ;
15 -> 28 ;
16 [label="X[2] <= 28.5\ngini = 0.353\nsamples = 301\nvalue = [232, 69]"] ;
14 -> 16 ;
17 [label="gini = 0.474\nsamples = 83\nvalue = [51, 32]"] ;
16 -> 17 ;
18 [label="gini = 0.282\nsamples = 218\nvalue = [181, 37]"] ;
16 -> 18 ;
12 [label="X[3] <= 3.5\ngini = 0.47\nsamples = 247\nvalue = [154, 93]"] ;
4 -> 12 ;
23 [label="gini = 0.442\nsamples = 161\nvalue = [108, 53]"] ;
12 -> 23 ;
24 [label="gini = 0.498\nsamples = 86\nvalue = [46, 40]"] ;
12 -> 24 ;
}